digraph Tree {
node [shape=box, style="filled", color="black", fontname="helvetica"] ;
edge [fontname="helvetica"] ;
0 [label="Sharpe:M-1 <= 2.291\ngini = 0.499\nsamples = 1270\nvalue = [0.517, 0.483]", fillcolor="#ffffff"] ;
1 [label="Revenue per Employee <= 989360.0\ngini = 0.471\nsamples = 464\nvalue = [0.621, 0.379]", fillcolor="#ffffff"] ;
0 -> 1 [labeldistance=2.5, labelangle=45, headlabel="True"] ;
2 [label="gini = 0.451\nsamples = 361\nvalue = [0.657, 0.343]", fillcolor="#ffffff"] ;
1 -> 2 ;
3 [label="gini = 0.5\nsamples = 103\nvalue = [0.495, 0.505]", fillcolor="#ffffff"] ;
1 -> 3 ;
4 [label="P/E <= 42.333\ngini = 0.496\nsamples = 806\nvalue = [0.457, 0.543]", fillcolor="#ffffff"] ;
0 -> 4 [labeldistance=2.5, labelangle=-45, headlabel="False"] ;
5 [label="gini = 0.486\nsamples = 649\nvalue = [0.418, 0.582]", fillcolor="#ffffff"] ;
4 -> 5 ;
6 [label="gini = 0.472\nsamples = 157\nvalue = [0.618, 0.382]", fillcolor="#ffffff"] ;
4 -> 6 ;
}