digraph Tree {
node [shape=box, style="filled", color="black", fontname="helvetica"] ;
edge [fontname="helvetica"] ;
0 [label="GICS Sector_Consumer Discretionary <= 0.5\ngini = 0.488\nsamples = 458\nvalue = [0.579, 0.421]", fillcolor="#ffffff"] ;
1 [label="Net Debt LF <= 9654499840.0\ngini = 0.495\nsamples = 391\nvalue = [0.552, 0.448]", fillcolor="#ffffff"] ;
0 -> 1 [labeldistance=2.5, labelangle=45, headlabel="True"] ;
3 [label="Revenue per Employee <= 265927.828\ngini = 0.498\nsamples = 353\nvalue = [0.53, 0.47]", fillcolor="#ffffff"] ;
1 -> 3 ;
9 [label="Beta:M-1 <= 1.563\ngini = 0.494\nsamples = 114\nvalue = [0.447, 0.553]", fillcolor="#ffffff"] ;
3 -> 9 ;
13 [label="EPS T12M <= 18.035\ngini = 0.5\nsamples = 96\nvalue = [0.5, 0.5]", fillcolor="#ffffff"] ;
9 -> 13 ;
27 [label="EPS T12M <= 0.03\ngini = 0.5\nsamples = 94\nvalue = [0.489, 0.511]", fillcolor="#ffffff"] ;
13 -> 27 ;
29 [label="gini = 0.408\nsamples = 7\nvalue = [0.714, 0.286]", fillcolor="#fdf7f2"] ;
27 -> 29 ;
30 [label="GICS Sector_Industrials <= 0.5\ngini = 0.498\nsamples = 87\nvalue = [0.471, 0.529]", fillcolor="#ffffff"] ;
27 -> 30 ;
31 [label="P/E <= 14.074\ngini = 0.487\nsamples = 50\nvalue = [0.42, 0.58]", fillcolor="#feffff"] ;
30 -> 31 ;
35 [label="gini = 0.0\nsamples = 3\nvalue = [1, 0]", fillcolor="#f6d5bd"] ;
31 -> 35 ;
36 [label="gini = 0.473\nsamples = 47\nvalue = [0.383, 0.617]", fillcolor="#feffff"] ;
31 -> 36 ;
32 [label="P/E <= 15.697\ngini = 0.497\nsamples = 37\nvalue = [0.541, 0.459]", fillcolor="#ffffff"] ;
30 -> 32 ;
33 [label="gini = 0.0\nsamples = 4\nvalue = [0, 1]", fillcolor="#cee6f8"] ;
32 -> 33 ;
34 [label="gini = 0.478\nsamples = 33\nvalue = [0.606, 0.394]", fillcolor="#fffefe"] ;
32 -> 34 ;
28 [label="gini = 0.0\nsamples = 2\nvalue = [1, 0]", fillcolor="#f2c09c"] ;
13 -> 28 ;
14 [label="gini = 0.278\nsamples = 18\nvalue = [0.167, 0.833]", fillcolor="#f8fbfe"] ;
9 -> 14 ;
10 [label="Beta:M-1 <= 1.651\ngini = 0.49\nsamples = 239\nvalue = [0.569, 0.431]", fillcolor="#ffffff"] ;
3 -> 10 ;
11 [label="Market Cap <= 104211.906\ngini = 0.475\nsamples = 206\nvalue = [0.612, 0.388]", fillcolor="#ffffff"] ;
10 -> 11 ;
15 [label="Revenue per Employee <= 600670.188\ngini = 0.482\nsamples = 195\nvalue = [0.595, 0.405]", fillcolor="#ffffff"] ;
11 -> 15 ;
17 [label="Beta:M-1 <= 1.454\ngini = 0.429\nsamples = 109\nvalue = [0.688, 0.312]", fillcolor="#fffffe"] ;
15 -> 17 ;
23 [label="Number of Employees:Y <= 93500.0\ngini = 0.442\nsamples = 103\nvalue = [0.67, 0.33]", fillcolor="#fffffe"] ;
17 -> 23 ;
25 [label="gini = 0.433\nsamples = 101\nvalue = [0.683, 0.317]", fillcolor="#fffffe"] ;
23 -> 25 ;
26 [label="gini = 0.0\nsamples = 2\nvalue = [0, 1]", fillcolor="#9ccef2"] ;
23 -> 26 ;
24 [label="gini = 0.0\nsamples = 6\nvalue = [1, 0]", fillcolor="#fbeade"] ;
17 -> 24 ;
18 [label="P/E <= 8.964\ngini = 0.499\nsamples = 86\nvalue = [0.477, 0.523]", fillcolor="#ffffff"] ;
15 -> 18 ;
19 [label="gini = 0.0\nsamples = 6\nvalue = [1, 0]", fillcolor="#fbeade"] ;
18 -> 19 ;
20 [label="P/E <= 10.578\ngini = 0.492\nsamples = 80\nvalue = [0.438, 0.562]", fillcolor="#ffffff"] ;
18 -> 20 ;
21 [label="gini = 0.198\nsamples = 9\nvalue = [0.111, 0.889]", fillcolor="#eef6fd"] ;
20 -> 21 ;
22 [label="gini = 0.499\nsamples = 71\nvalue = [0.479, 0.521]", fillcolor="#ffffff"] ;
20 -> 22 ;
16 [label="gini = 0.165\nsamples = 11\nvalue = [0.909, 0.091]", fillcolor="#fdf6f0"] ;
11 -> 16 ;
12 [label="GICS Sector_Health Care <= 0.5\ngini = 0.422\nsamples = 33\nvalue = [0.303, 0.697]", fillcolor="#fdfeff"] ;
10 -> 12 ;
49 [label="Revenue per Employee <= 928663.875\ngini = 0.436\nsamples = 28\nvalue = [0.321, 0.679]", fillcolor="#fcfeff"] ;
12 -> 49 ;
51 [label="gini = 0.469\nsamples = 24\nvalue = [0.375, 0.625]", fillcolor="#fdfeff"] ;
49 -> 51 ;
52 [label="gini = 0.0\nsamples = 4\nvalue = [0, 1]", fillcolor="#cee6f8"] ;
49 -> 52 ;
50 [label="gini = 0.32\nsamples = 5\nvalue = [0.2, 0.8]", fillcolor="#e6f3fc"] ;
12 -> 50 ;
4 [label="Market Cap <= 36804.137\ngini = 0.361\nsamples = 38\nvalue = [0.763, 0.237]", fillcolor="#fffdfc"] ;
1 -> 4 ;
7 [label="gini = 0.494\nsamples = 18\nvalue = [0.556, 0.444]", fillcolor="#fffefe"] ;
4 -> 7 ;
8 [label="gini = 0.095\nsamples = 20\nvalue = [0.95, 0.05]", fillcolor="#fef9f6"] ;
4 -> 8 ;
2 [label="Beta:M-1 <= 0.583\ngini = 0.393\nsamples = 67\nvalue = [0.731, 0.269]", fillcolor="#fffefe"] ;
0 -> 2 [labeldistance=2.5, labelangle=-45, headlabel="False"] ;
5 [label="gini = 0.0\nsamples = 3\nvalue = [0, 1]", fillcolor="#bddef6"] ;
2 -> 5 ;
6 [label="Market Cap <= 2056.634\ngini = 0.359\nsamples = 64\nvalue = [0.766, 0.234]", fillcolor="#fffefd"] ;
2 -> 6 ;
37 [label="gini = 0.245\nsamples = 21\nvalue = [0.857, 0.143]", fillcolor="#fefbf8"] ;
6 -> 37 ;
38 [label="Beta:M-1 <= 0.845\ngini = 0.402\nsamples = 43\nvalue = [0.721, 0.279]", fillcolor="#fffefd"] ;
6 -> 38 ;
39 [label="gini = 0.444\nsamples = 3\nvalue = [0.333, 0.667]", fillcolor="#e6f3fc"] ;
38 -> 39 ;
40 [label="Market Cap <= 2379.929\ngini = 0.375\nsamples = 40\nvalue = [0.75, 0.25]", fillcolor="#fffdfd"] ;
38 -> 40 ;
41 [label="gini = 0.375\nsamples = 4\nvalue = [0.25, 0.75]", fillcolor="#e5f2fc"] ;
40 -> 41 ;
42 [label="EPS T12M <= 38.025\ngini = 0.313\nsamples = 36\nvalue = [0.806, 0.194]", fillcolor="#fffdfc"] ;
40 -> 42 ;
43 [label="Market Cap <= 365286.922\ngini = 0.284\nsamples = 35\nvalue = [0.829, 0.171]", fillcolor="#fffdfb"] ;
42 -> 43 ;
45 [label="EPS T12M <= 3.995\ngini = 0.257\nsamples = 33\nvalue = [0.848, 0.152]", fillcolor="#fefcfb"] ;
43 -> 45 ;
47 [label="gini = 0.34\nsamples = 23\nvalue = [0.783, 0.217]", fillcolor="#fefcfa"] ;
45 -> 47 ;
48 [label="gini = 0.0\nsamples = 10\nvalue = [1, 0]", fillcolor="#fcf2eb"] ;
45 -> 48 ;
46 [label="gini = 0.5\nsamples = 2\nvalue = [0.5, 0.5]", fillcolor="#ffffff"] ;
43 -> 46 ;
44 [label="gini = 0.0\nsamples = 1\nvalue = [0, 1]", fillcolor="#399de5"] ;
42 -> 44 ;
}