digraph Tree {
node [shape=box, style="filled", color="black", fontname="helvetica"] ;
edge [fontname="helvetica"] ;
0 [label="EPS T12M <= 6.485\ngini = 0.467\nsamples = 218\nvalue = [0.628, 0.372]", fillcolor="#ffffff"] ;
1 [label="P/E <= 24.071\ngini = 0.475\nsamples = 207\nvalue = [0.611, 0.389]", fillcolor="#ffffff"] ;
0 -> 1 [labeldistance=2.5, labelangle=45, headlabel="True"] ;
3 [label="Revenue per Employee <= 100831.172\ngini = 0.415\nsamples = 114\nvalue = [0.706, 0.294]", fillcolor="#ffffff"] ;
1 -> 3 ;
9 [label="gini = 0.408\nsamples = 6\nvalue = [0.286, 0.714]", fillcolor="#f2f9fd"] ;
3 -> 9 ;
10 [label="Number of Employees:Y <= 775.0\ngini = 0.4\nsamples = 108\nvalue = [0.724, 0.276]", fillcolor="#fffffe"] ;
3 -> 10 ;
11 [label="gini = 0.0\nsamples = 9\nvalue = [1, 0]", fillcolor="#fdf7f3"] ;
10 -> 11 ;
12 [label="Revenue T12M <= 579195520.0\ngini = 0.425\nsamples = 99\nvalue = [0.694, 0.306]", fillcolor="#fffffe"] ;
10 -> 12 ;
13 [label="gini = 0.0\nsamples = 6\nvalue = [0, 1]", fillcolor="#deeffb"] ;
12 -> 13 ;
14 [label="EPS T12M <= 2.785\ngini = 0.4\nsamples = 93\nvalue = [0.723, 0.277]", fillcolor="#fffffe"] ;
12 -> 14 ;
15 [label="GICS Sector_Consumer Staples <= 0.5\ngini = 0.283\nsamples = 60\nvalue = [0.83, 0.17]", fillcolor="#fffefe"] ;
14 -> 15 ;
21 [label="Sharpe:M-1 <= -1.779\ngini = 0.237\nsamples = 53\nvalue = [0.862, 0.138]", fillcolor="#fffefd"] ;
15 -> 21 ;
41 [label="Sharpe:M-1 <= -2.658\ngini = 0.386\nsamples = 18\nvalue = [0.739, 0.261]", fillcolor="#fefcfb"] ;
21 -> 41 ;
49 [label="gini = 0.198\nsamples = 7\nvalue = [0.889, 0.111]", fillcolor="#fdf4ee"] ;
41 -> 49 ;
50 [label="EPS T12M <= 1.675\ngini = 0.459\nsamples = 11\nvalue = [0.643, 0.357]", fillcolor="#fefcfb"] ;
41 -> 50 ;
59 [label="gini = 0.49\nsamples = 6\nvalue = [0.571, 0.429]", fillcolor="#fefcfb"] ;
50 -> 59 ;
60 [label="gini = 0.408\nsamples = 5\nvalue = [0.714, 0.286]", fillcolor="#fdf7f2"] ;
50 -> 60 ;
42 [label="EPS T12M <= 1.357\ngini = 0.16\nsamples = 35\nvalue = [0.912, 0.088]", fillcolor="#fffdfc"] ;
21 -> 42 ;
43 [label="Revenue per Employee <= 277006.578\ngini = 0.36\nsamples = 12\nvalue = [0.765, 0.235]", fillcolor="#fefbf9"] ;
42 -> 43 ;
45 [label="gini = 0.49\nsamples = 5\nvalue = [0.571, 0.429]", fillcolor="#fefcfb"] ;
43 -> 45 ;
46 [label="gini = 0.18\nsamples = 7\nvalue = [0.9, 0.1]", fillcolor="#fdf5ef"] ;
43 -> 46 ;
44 [label="Market Cap <= 2334.058\ngini = 0.049\nsamples = 23\nvalue = [0.975, 0.025]", fillcolor="#fefcfa"] ;
42 -> 44 ;
61 [label="Sharpe:M-1 <= -0.34\ngini = 0.117\nsamples = 11\nvalue = [0.938, 0.062]", fillcolor="#fef8f4"] ;
44 -> 61 ;
63 [label="gini = 0.278\nsamples = 5\nvalue = [0.833, 0.167]", fillcolor="#fcf1e8"] ;
61 -> 63 ;
64 [label="gini = 0.0\nsamples = 6\nvalue = [1, 0]", fillcolor="#fcf2eb"] ;
61 -> 64 ;
62 [label="gini = 0.0\nsamples = 12\nvalue = [1, 0]", fillcolor="#fefaf7"] ;
44 -> 62 ;
22 [label="gini = 0.5\nsamples = 7\nvalue = [0.5, 0.5]", fillcolor="#ffffff"] ;
15 -> 22 ;
16 [label="P/E <= 13.036\ngini = 0.496\nsamples = 33\nvalue = [0.547, 0.453]", fillcolor="#ffffff"] ;
14 -> 16 ;
17 [label="gini = 0.278\nsamples = 6\nvalue = [0.167, 0.833]", fillcolor="#f4f9fe"] ;
16 -> 17 ;
18 [label="Market Cap <= 18842.546\ngini = 0.45\nsamples = 27\nvalue = [0.659, 0.341]", fillcolor="#fffefd"] ;
16 -> 18 ;
19 [label="EPS T12M <= 3.415\ngini = 0.498\nsamples = 20\nvalue = [0.533, 0.467]", fillcolor="#ffffff"] ;
18 -> 19 ;
23 [label="gini = 0.459\nsamples = 8\nvalue = [0.357, 0.643]", fillcolor="#fbfdfe"] ;
19 -> 23 ;
24 [label="Market Cap <= 6614.752\ngini = 0.43\nsamples = 12\nvalue = [0.688, 0.312]", fillcolor="#fefcfa"] ;
19 -> 24 ;
47 [label="gini = 0.245\nsamples = 6\nvalue = [0.857, 0.143]", fillcolor="#fcf2ea"] ;
24 -> 47 ;
48 [label="gini = 0.494\nsamples = 6\nvalue = [0.556, 0.444]", fillcolor="#fffdfc"] ;
24 -> 48 ;
20 [label="gini = 0.0\nsamples = 7\nvalue = [1, 0]", fillcolor="#fdf4ed"] ;
18 -> 20 ;
4 [label="Revenue T12M <= 2023220032.0\ngini = 0.5\nsamples = 93\nvalue = [0.496, 0.504]", fillcolor="#ffffff"] ;
1 -> 4 ;
5 [label="GICS Sector_Real Estate <= 0.5\ngini = 0.469\nsamples = 59\nvalue = [0.376, 0.624]", fillcolor="#feffff"] ;
4 -> 5 ;
7 [label="Net Debt LF <= 64205000.0\ngini = 0.422\nsamples = 53\nvalue = [0.303, 0.697]", fillcolor="#fefeff"] ;
5 -> 7 ;
25 [label="Revenue T12M <= 533610992.0\ngini = 0.469\nsamples = 32\nvalue = [0.375, 0.625]", fillcolor="#fefeff"] ;
7 -> 25 ;
27 [label="Sharpe:M-1 <= -0.765\ngini = 0.483\nsamples = 14\nvalue = [0.591, 0.409]", fillcolor="#fffefd"] ;
25 -> 27 ;
29 [label="gini = 0.408\nsamples = 5\nvalue = [0.286, 0.714]", fillcolor="#f2f9fd"] ;
27 -> 29 ;
30 [label="gini = 0.391\nsamples = 9\nvalue = [0.733, 0.267]", fillcolor="#fefbf9"] ;
27 -> 30 ;
28 [label="Market Cap <= 4315.226\ngini = 0.311\nsamples = 18\nvalue = [0.192, 0.808]", fillcolor="#fafdfe"] ;
25 -> 28 ;
31 [label="EPS T12M <= 1.22\ngini = 0.111\nsamples = 11\nvalue = [0.059, 0.941]", fillcolor="#f5fafe"] ;
28 -> 31 ;
57 [label="gini = 0.0\nsamples = 6\nvalue = [0, 1]", fillcolor="#ebf5fc"] ;
31 -> 57 ;
58 [label="gini = 0.245\nsamples = 5\nvalue = [0.143, 0.857]", fillcolor="#eaf5fc"] ;
31 -> 58 ;
32 [label="gini = 0.494\nsamples = 7\nvalue = [0.444, 0.556]", fillcolor="#fcfeff"] ;
28 -> 32 ;
26 [label="Revenue T12M <= 1187870528.0\ngini = 0.293\nsamples = 21\nvalue = [0.179, 0.821]", fillcolor="#fafdfe"] ;
7 -> 26 ;
53 [label="P/E <= 68.791\ngini = 0.346\nsamples = 14\nvalue = [0.222, 0.778]", fillcolor="#f9fcfe"] ;
26 -> 53 ;
55 [label="gini = 0.142\nsamples = 9\nvalue = [0.077, 0.923]", fillcolor="#f2f9fd"] ;
53 -> 55 ;
56 [label="gini = 0.48\nsamples = 5\nvalue = [0.6, 0.4]", fillcolor="#fefaf6"] ;
53 -> 56 ;
54 [label="gini = 0.18\nsamples = 7\nvalue = [0.1, 0.9]", fillcolor="#eff7fd"] ;
26 -> 54 ;
8 [label="gini = 0.0\nsamples = 6\nvalue = [1, 0]", fillcolor="#fcf1e9"] ;
5 -> 8 ;
6 [label="P/E <= 26.78\ngini = 0.436\nsamples = 34\nvalue = [0.679, 0.321]", fillcolor="#fffefe"] ;
4 -> 6 ;
33 [label="Sharpe:M-1 <= 0.904\ngini = 0.499\nsamples = 10\nvalue = [0.526, 0.474]", fillcolor="#fffffe"] ;
6 -> 33 ;
35 [label="gini = 0.397\nsamples = 5\nvalue = [0.273, 0.727]", fillcolor="#f7fbfe"] ;
33 -> 35 ;
36 [label="gini = 0.219\nsamples = 5\nvalue = [0.875, 0.125]", fillcolor="#fdf3ec"] ;
33 -> 36 ;
34 [label="Revenue T12M <= 4790660352.0\ngini = 0.368\nsamples = 24\nvalue = [0.757, 0.243]", fillcolor="#fffdfc"] ;
6 -> 34 ;
37 [label="Beta:M-1 <= 1.197\ngini = 0.105\nsamples = 11\nvalue = [0.944, 0.056]", fillcolor="#fef9f5"] ;
34 -> 37 ;
51 [label="gini = 0.0\nsamples = 6\nvalue = [1, 0]", fillcolor="#fdf4ee"] ;
37 -> 51 ;
52 [label="gini = 0.278\nsamples = 5\nvalue = [0.833, 0.167]", fillcolor="#fcf1e8"] ;
37 -> 52 ;
38 [label="P/E <= 29.24\ngini = 0.488\nsamples = 13\nvalue = [0.579, 0.421]", fillcolor="#fffefd"] ;
34 -> 38 ;
39 [label="gini = 0.219\nsamples = 5\nvalue = [0.875, 0.125]", fillcolor="#fdf3ec"] ;
38 -> 39 ;
40 [label="gini = 0.463\nsamples = 8\nvalue = [0.364, 0.636]", fillcolor="#fafcfe"] ;
38 -> 40 ;
2 [label="Sharpe:M-1 <= 0.427\ngini = 0.18\nsamples = 11\nvalue = [0.9, 0.1]", fillcolor="#fefaf7"] ;
0 -> 2 [labeldistance=2.5, labelangle=-45, headlabel="False"] ;
65 [label="gini = 0.219\nsamples = 5\nvalue = [0.875, 0.125]", fillcolor="#fdf3ec"] ;
2 -> 65 ;
66 [label="gini = 0.153\nsamples = 6\nvalue = [0.917, 0.083]", fillcolor="#fdf6f1"] ;
2 -> 66 ;
}