digraph Tree {
node [shape=box, style="filled", color="black", fontname="helvetica"] ;
edge [fontname="helvetica"] ;
0 [label="Number of Employees:Y <= 8105.5\ngini = 0.484\nsamples = 331\nvalue = [0.589, 0.411]", fillcolor="#ffffff"] ;
1 [label="Revenue per Employee <= 3664063.0\ngini = 0.5\nsamples = 186\nvalue = [0.5, 0.5]", fillcolor="#ffffff"] ;
0 -> 1 [labeldistance=2.5, labelangle=45, headlabel="True"] ;
3 [label="GICS Sector_Real Estate <= 0.5\ngini = 0.499\nsamples = 180\nvalue = [0.483, 0.517]", fillcolor="#ffffff"] ;
1 -> 3 ;
11 [label="Number of Employees:Y <= 7116.5\ngini = 0.498\nsamples = 167\nvalue = [0.467, 0.533]", fillcolor="#ffffff"] ;
3 -> 11 ;
13 [label="Revenue T12M <= 632689024.0\ngini = 0.5\nsamples = 152\nvalue = [0.493, 0.507]", fillcolor="#ffffff"] ;
11 -> 13 ;
15 [label="gini = 0.457\nsamples = 51\nvalue = [0.353, 0.647]", fillcolor="#fefeff"] ;
13 -> 15 ;
16 [label="GICS Sector_Consumer Staples <= 0.5\ngini = 0.492\nsamples = 101\nvalue = [0.564, 0.436]", fillcolor="#ffffff"] ;
13 -> 16 ;
17 [label="gini = 0.488\nsamples = 95\nvalue = [0.579, 0.421]", fillcolor="#ffffff"] ;
16 -> 17 ;
18 [label="gini = 0.444\nsamples = 6\nvalue = [0.333, 0.667]", fillcolor="#f3f9fd"] ;
16 -> 18 ;
14 [label="gini = 0.32\nsamples = 15\nvalue = [0.2, 0.8]", fillcolor="#f7fbfe"] ;
11 -> 14 ;
12 [label="gini = 0.426\nsamples = 13\nvalue = [0.692, 0.308]", fillcolor="#fefbf9"] ;
3 -> 12 ;
4 [label="gini = 0.0\nsamples = 6\nvalue = [1, 0]", fillcolor="#fbeade"] ;
1 -> 4 ;
2 [label="GICS Sector_Consumer Staples <= 0.5\ngini = 0.417\nsamples = 145\nvalue = [0.703, 0.297]", fillcolor="#fffffe"] ;
0 -> 2 [labeldistance=2.5, labelangle=-45, headlabel="False"] ;
5 [label="Revenue T12M <= 39657498624.0\ngini = 0.437\nsamples = 127\nvalue = [0.677, 0.323]", fillcolor="#fffffe"] ;
2 -> 5 ;
7 [label="Sharpe:M-1 <= 2.525\ngini = 0.408\nsamples = 112\nvalue = [0.714, 0.286]", fillcolor="#fffffe"] ;
5 -> 7 ;
9 [label="gini = 0.355\nsamples = 78\nvalue = [0.769, 0.231]", fillcolor="#fffefe"] ;
7 -> 9 ;
10 [label="gini = 0.484\nsamples = 34\nvalue = [0.588, 0.412]", fillcolor="#fffefe"] ;
7 -> 10 ;
8 [label="gini = 0.48\nsamples = 15\nvalue = [0.4, 0.6]", fillcolor="#fcfeff"] ;
5 -> 8 ;
6 [label="gini = 0.198\nsamples = 18\nvalue = [0.889, 0.111]", fillcolor="#fefaf6"] ;
2 -> 6 ;
}